digraph Tree {
node [shape=box, fontname="helvetica"] ;
edge [fontname="helvetica"] ;
0 [label="BloodPressure <= 0.453\ngini = 0.446\nsamples = 555\nvalue = [369, 186]"] ;
1 [label="Pregnancies <= 0.022\ngini = 0.495\nsamples = 305\nvalue = [167, 138]"] ;
0 -> 1 [labeldistance=2.5, labelangle=45, headlabel="True"] ;
2 [label="Pregnancies <= 0.005\ngini = 0.465\nsamples = 185\nvalue = [117, 68]"] ;
1 -> 2 ;
3 [label="Age <= 0.137\ngini = 0.5\nsamples = 70\nvalue = [35, 35]"] ;
2 -> 3 ;
4 [label="BloodPressure <= 0.233\ngini = 0.427\nsamples = 42\nvalue = [29, 13]"] ;
3 -> 4 ;
5 [label="BloodPressure <= 0.183\ngini = 0.245\nsamples = 7\nvalue = [1, 6]"] ;
4 -> 5 ;
6 [label="gini = 0.0\nsamples = 1\nvalue = [1, 0]"] ;
5 -> 6 ;
7 [label="gini = 0.0\nsamples = 6\nvalue = [0, 6]"] ;
5 -> 7 ;
8 [label="Glucose <= 0.658\ngini = 0.32\nsamples = 35\nvalue = [28, 7]"] ;
4 -> 8 ;
9 [label="Glucose <= 0.451\ngini = 0.185\nsamples = 29\nvalue = [26, 3]"] ;
8 -> 9 ;
10 [label="BloodPressure <= 0.296\ngini = 0.5\nsamples = 4\nvalue = [2, 2]"] ;
9 -> 10 ;
11 [label="gini = 0.0\nsamples = 2\nvalue = [2, 0]"] ;
10 -> 11 ;
12 [label="gini = 0.0\nsamples = 2\nvalue = [0, 2]"] ;
10 -> 12 ;
13 [label="BloodPressure <= 0.262\ngini = 0.077\nsamples = 25\nvalue = [24, 1]"] ;
9 -> 13 ;
14 [label="DiabetesPedigreeFunction <= 0.002\ngini = 0.444\nsamples = 3\nvalue = [2, 1]"] ;
13 -> 14 ;
15 [label="gini = 0.0\nsamples = 2\nvalue = [2, 0]"] ;
14 -> 15 ;
16 [label="gini = 0.0\nsamples = 1\nvalue = [0, 1]"] ;
14 -> 16 ;
17 [label="gini = 0.0\nsamples = 22\nvalue = [22, 0]"] ;
13 -> 17 ;
18 [label="Age <= 0.117\ngini = 0.444\nsamples = 6\nvalue = [2, 4]"] ;
8 -> 18 ;
19 [label="gini = 0.0\nsamples = 4\nvalue = [0, 4]"] ;
18 -> 19 ;
20 [label="gini = 0.0\nsamples = 2\nvalue = [2, 0]"] ;
18 -> 20 ;
21 [label="Age <= 0.205\ngini = 0.337\nsamples = 28\nvalue = [6, 22]"] ;
3 -> 21 ;
22 [label="Insulin <= 0.808\ngini = 0.159\nsamples = 23\nvalue = [2, 21]"] ;
21 -> 22 ;
23 [label="SkinThickness <= 0.208\ngini = 0.087\nsamples = 22\nvalue = [1, 21]"] ;
22 -> 23 ;
24 [label="gini = 0.0\nsamples = 19\nvalue = [0, 19]"] ;
23 -> 24 ;
25 [label="Glucose <= 0.647\ngini = 0.444\nsamples = 3\nvalue = [1, 2]"] ;
23 -> 25 ;
26 [label="gini = 0.0\nsamples = 1\nvalue = [1, 0]"] ;
25 -> 26 ;
27 [label="gini = 0.0\nsamples = 2\nvalue = [0, 2]"] ;
25 -> 27 ;
28 [label="gini = 0.0\nsamples = 1\nvalue = [1, 0]"] ;
22 -> 28 ;
29 [label="DiabetesPedigreeFunction <= 0.002\ngini = 0.32\nsamples = 5\nvalue = [4, 1]"] ;
21 -> 29 ;
30 [label="gini = 0.0\nsamples = 1\nvalue = [0, 1]"] ;
29 -> 30 ;
31 [label="gini = 0.0\nsamples = 4\nvalue = [4, 0]"] ;
29 -> 31 ;
32 [label="BMI <= 0.152\ngini = 0.409\nsamples = 115\nvalue = [82, 33]"] ;
2 -> 32 ;
33 [label="Pregnancies <= 0.008\ngini = 0.494\nsamples = 47\nvalue = [26, 21]"] ;
32 -> 33 ;
34 [label="gini = 0.0\nsamples = 8\nvalue = [8, 0]"] ;
33 -> 34 ;
35 [label="BloodPressure <= 0.372\ngini = 0.497\nsamples = 39\nvalue = [18, 21]"] ;
33 -> 35 ;
36 [label="Insulin <= 0.811\ngini = 0.472\nsamples = 34\nvalue = [13, 21]"] ;
35 -> 36 ;
37 [label="DiabetesPedigreeFunction <= 0.004\ngini = 0.4\nsamples = 29\nvalue = [8, 21]"] ;
36 -> 37 ;
38 [label="DiabetesPedigreeFunction <= 0.001\ngini = 0.346\nsamples = 27\nvalue = [6, 21]"] ;
37 -> 38 ;
39 [label="gini = 0.0\nsamples = 1\nvalue = [1, 0]"] ;
38 -> 39 ;
40 [label="Age <= 0.137\ngini = 0.311\nsamples = 26\nvalue = [5, 21]"] ;
38 -> 40 ;
41 [label="Pregnancies <= 0.01\ngini = 0.188\nsamples = 19\nvalue = [2, 17]"] ;
40 -> 41 ;
42 [label="Pregnancies <= 0.009\ngini = 0.48\nsamples = 5\nvalue = [2, 3]"] ;
41 -> 42 ;
43 [label="gini = 0.0\nsamples = 3\nvalue = [0, 3]"] ;
42 -> 43 ;
44 [label="gini = 0.0\nsamples = 2\nvalue = [2, 0]"] ;
42 -> 44 ;
45 [label="gini = 0.0\nsamples = 14\nvalue = [0, 14]"] ;
41 -> 45 ;
46 [label="Glucose <= 0.796\ngini = 0.49\nsamples = 7\nvalue = [3, 4]"] ;
40 -> 46 ;
47 [label="Insulin <= 0.589\ngini = 0.48\nsamples = 5\nvalue = [3, 2]"] ;
46 -> 47 ;
48 [label="gini = 0.0\nsamples = 2\nvalue = [2, 0]"] ;
47 -> 48 ;
49 [label="Age <= 0.146\ngini = 0.444\nsamples = 3\nvalue = [1, 2]"] ;
47 -> 49 ;
50 [label="gini = 0.0\nsamples = 1\nvalue = [1, 0]"] ;
49 -> 50 ;
51 [label="gini = 0.0\nsamples = 2\nvalue = [0, 2]"] ;
49 -> 51 ;
52 [label="gini = 0.0\nsamples = 2\nvalue = [0, 2]"] ;
46 -> 52 ;
53 [label="gini = 0.0\nsamples = 2\nvalue = [2, 0]"] ;
37 -> 53 ;
54 [label="gini = 0.0\nsamples = 5\nvalue = [5, 0]"] ;
36 -> 54 ;
55 [label="gini = 0.0\nsamples = 5\nvalue = [5, 0]"] ;
35 -> 55 ;
56 [label="Glucose <= 0.895\ngini = 0.291\nsamples = 68\nvalue = [56, 12]"] ;
32 -> 56 ;
57 [label="BloodPressure <= 0.449\ngini = 0.231\nsamples = 60\nvalue = [52, 8]"] ;
56 -> 57 ;
58 [label="Pregnancies <= 0.006\ngini = 0.188\nsamples = 57\nvalue = [51, 6]"] ;
57 -> 58 ;
59 [label="gini = 0.0\nsamples = 1\nvalue = [0, 1]"] ;
58 -> 59 ;
60 [label="Age <= 0.115\ngini = 0.163\nsamples = 56\nvalue = [51, 5]"] ;
58 -> 60 ;
61 [label="SkinThickness <= 0.137\ngini = 0.5\nsamples = 4\nvalue = [2, 2]"] ;
60 -> 61 ;
62 [label="gini = 0.0\nsamples = 2\nvalue = [2, 0]"] ;
61 -> 62 ;
63 [label="gini = 0.0\nsamples = 2\nvalue = [0, 2]"] ;
61 -> 63 ;
64 [label="Age <= 0.174\ngini = 0.109\nsamples = 52\nvalue = [49, 3]"] ;
60 -> 64 ;
65 [label="gini = 0.0\nsamples = 40\nvalue = [40, 0]"] ;
64 -> 65 ;
66 [label="SkinThickness <= 0.14\ngini = 0.375\nsamples = 12\nvalue = [9, 3]"] ;
64 -> 66 ;
67 [label="BMI <= 0.198\ngini = 0.5\nsamples = 6\nvalue = [3, 3]"] ;
66 -> 67 ;
68 [label="Age <= 0.194\ngini = 0.375\nsamples = 4\nvalue = [3, 1]"] ;
67 -> 68 ;
69 [label="gini = 0.0\nsamples = 1\nvalue = [0, 1]"] ;
68 -> 69 ;
70 [label="gini = 0.0\nsamples = 3\nvalue = [3, 0]"] ;
68 -> 70 ;
71 [label="gini = 0.0\nsamples = 2\nvalue = [0, 2]"] ;
67 -> 71 ;
72 [label="gini = 0.0\nsamples = 6\nvalue = [6, 0]"] ;
66 -> 72 ;
73 [label="SkinThickness <= 0.207\ngini = 0.444\nsamples = 3\nvalue = [1, 2]"] ;
57 -> 73 ;
74 [label="gini = 0.0\nsamples = 2\nvalue = [0, 2]"] ;
73 -> 74 ;
75 [label="gini = 0.0\nsamples = 1\nvalue = [1, 0]"] ;
73 -> 75 ;
76 [label="DiabetesPedigreeFunction <= 0.001\ngini = 0.5\nsamples = 8\nvalue = [4, 4]"] ;
56 -> 76 ;
77 [label="gini = 0.0\nsamples = 2\nvalue = [2, 0]"] ;
76 -> 77 ;
78 [label="Age <= 0.162\ngini = 0.444\nsamples = 6\nvalue = [2, 4]"] ;
76 -> 78 ;
79 [label="gini = 0.0\nsamples = 3\nvalue = [0, 3]"] ;
78 -> 79 ;
80 [label="DiabetesPedigreeFunction <= 0.002\ngini = 0.444\nsamples = 3\nvalue = [2, 1]"] ;
78 -> 80 ;
81 [label="gini = 0.0\nsamples = 1\nvalue = [0, 1]"] ;
80 -> 81 ;
82 [label="gini = 0.0\nsamples = 2\nvalue = [2, 0]"] ;
80 -> 82 ;
83 [label="Age <= 0.218\ngini = 0.486\nsamples = 120\nvalue = [50, 70]"] ;
1 -> 83 ;
84 [label="BloodPressure <= 0.44\ngini = 0.397\nsamples = 66\nvalue = [18, 48]"] ;
83 -> 84 ;
85 [label="Glucose <= 0.959\ngini = 0.344\nsamples = 59\nvalue = [13, 46]"] ;
84 -> 85 ;
86 [label="Age <= 0.116\ngini = 0.328\nsamples = 58\nvalue = [12, 46]"] ;
85 -> 86 ;
87 [label="gini = 0.0\nsamples = 1\nvalue = [1, 0]"] ;
86 -> 87 ;
88 [label="DiabetesPedigreeFunction <= 0.001\ngini = 0.311\nsamples = 57\nvalue = [11, 46]"] ;
86 -> 88 ;
89 [label="Pregnancies <= 0.026\ngini = 0.5\nsamples = 6\nvalue = [3, 3]"] ;
88 -> 89 ;
90 [label="gini = 0.0\nsamples = 2\nvalue = [0, 2]"] ;
89 -> 90 ;
91 [label="BMI <= 0.181\ngini = 0.375\nsamples = 4\nvalue = [3, 1]"] ;
89 -> 91 ;
92 [label="gini = 0.0\nsamples = 3\nvalue = [3, 0]"] ;
91 -> 92 ;
93 [label="gini = 0.0\nsamples = 1\nvalue = [0, 1]"] ;
91 -> 93 ;
94 [label="Glucose <= 0.709\ngini = 0.265\nsamples = 51\nvalue = [8, 43]"] ;
88 -> 94 ;
95 [label="Glucose <= 0.656\ngini = 0.353\nsamples = 35\nvalue = [8, 27]"] ;
94 -> 95 ;
96 [label="BloodPressure <= 0.416\ngini = 0.271\nsamples = 31\nvalue = [5, 26]"] ;
95 -> 96 ;
97 [label="BloodPressure <= 0.28\ngini = 0.231\nsamples = 30\nvalue = [4, 26]"] ;
96 -> 97 ;
98 [label="Age <= 0.177\ngini = 0.444\nsamples = 9\nvalue = [3, 6]"] ;
97 -> 98 ;
99 [label="BloodPressure <= 0.279\ngini = 0.245\nsamples = 7\nvalue = [1, 6]"] ;
98 -> 99 ;
100 [label="gini = 0.0\nsamples = 6\nvalue = [0, 6]"] ;
99 -> 100 ;
101 [label="gini = 0.0\nsamples = 1\nvalue = [1, 0]"] ;
99 -> 101 ;
102 [label="gini = 0.0\nsamples = 2\nvalue = [2, 0]"] ;
98 -> 102 ;
103 [label="SkinThickness <= 0.07\ngini = 0.091\nsamples = 21\nvalue = [1, 20]"] ;
97 -> 103 ;
104 [label="gini = 0.0\nsamples = 1\nvalue = [1, 0]"] ;
103 -> 104 ;
105 [label="gini = 0.0\nsamples = 20\nvalue = [0, 20]"] ;
103 -> 105 ;
106 [label="gini = 0.0\nsamples = 1\nvalue = [1, 0]"] ;
96 -> 106 ;
107 [label="BMI <= 0.189\ngini = 0.375\nsamples = 4\nvalue = [3, 1]"] ;
95 -> 107 ;
108 [label="gini = 0.0\nsamples = 1\nvalue = [0, 1]"] ;
107 -> 108 ;
109 [label="gini = 0.0\nsamples = 3\nvalue = [3, 0]"] ;
107 -> 109 ;
110 [label="gini = 0.0\nsamples = 16\nvalue = [0, 16]"] ;
94 -> 110 ;
111 [label="gini = 0.0\nsamples = 1\nvalue = [1, 0]"] ;
85 -> 111 ;
112 [label="DiabetesPedigreeFunction <= 0.003\ngini = 0.408\nsamples = 7\nvalue = [5, 2]"] ;
84 -> 112 ;
113 [label="gini = 0.0\nsamples = 5\nvalue = [5, 0]"] ;
112 -> 113 ;
114 [label="gini = 0.0\nsamples = 2\nvalue = [0, 2]"] ;
112 -> 114 ;
115 [label="BMI <= 0.202\ngini = 0.483\nsamples = 54\nvalue = [32, 22]"] ;
83 -> 115 ;
116 [label="BloodPressure <= 0.448\ngini = 0.389\nsamples = 34\nvalue = [25, 9]"] ;
115 -> 116 ;
117 [label="Pregnancies <= 0.033\ngini = 0.32\nsamples = 30\nvalue = [24, 6]"] ;
116 -> 117 ;
118 [label="Age <= 0.24\ngini = 0.486\nsamples = 12\nvalue = [7, 5]"] ;
117 -> 118 ;
119 [label="gini = 0.0\nsamples = 2\nvalue = [2, 0]"] ;
118 -> 119 ;
120 [label="Age <= 0.276\ngini = 0.5\nsamples = 10\nvalue = [5, 5]"] ;
118 -> 120 ;
121 [label="gini = 0.0\nsamples = 3\nvalue = [0, 3]"] ;
120 -> 121 ;
122 [label="Pregnancies <= 0.027\ngini = 0.408\nsamples = 7\nvalue = [5, 2]"] ;
120 -> 122 ;
123 [label="BMI <= 0.072\ngini = 0.444\nsamples = 3\nvalue = [1, 2]"] ;
122 -> 123 ;
124 [label="gini = 0.0\nsamples = 1\nvalue = [1, 0]"] ;
123 -> 124 ;
125 [label="gini = 0.0\nsamples = 2\nvalue = [0, 2]"] ;
123 -> 125 ;
126 [label="gini = 0.0\nsamples = 4\nvalue = [4, 0]"] ;
122 -> 126 ;
127 [label="DiabetesPedigreeFunction <= 0.001\ngini = 0.105\nsamples = 18\nvalue = [17, 1]"] ;
117 -> 127 ;
128 [label="BloodPressure <= 0.377\ngini = 0.444\nsamples = 3\nvalue = [2, 1]"] ;
127 -> 128 ;
129 [label="gini = 0.0\nsamples = 2\nvalue = [2, 0]"] ;
128 -> 129 ;
130 [label="gini = 0.0\nsamples = 1\nvalue = [0, 1]"] ;
128 -> 130 ;
131 [label="gini = 0.0\nsamples = 15\nvalue = [15, 0]"] ;
127 -> 131 ;
132 [label="BMI <= 0.183\ngini = 0.375\nsamples = 4\nvalue = [1, 3]"] ;
116 -> 132 ;
133 [label="gini = 0.0\nsamples = 3\nvalue = [0, 3]"] ;
132 -> 133 ;
134 [label="gini = 0.0\nsamples = 1\nvalue = [1, 0]"] ;
132 -> 134 ;
135 [label="Glucose <= 0.926\ngini = 0.455\nsamples = 20\nvalue = [7, 13]"] ;
115 -> 135 ;
136 [label="Age <= 0.305\ngini = 0.401\nsamples = 18\nvalue = [5, 13]"] ;
135 -> 136 ;
137 [label="Glucose <= 0.815\ngini = 0.245\nsamples = 14\nvalue = [2, 12]"] ;
136 -> 137 ;
138 [label="Glucose <= 0.801\ngini = 0.444\nsamples = 3\nvalue = [2, 1]"] ;
137 -> 138 ;
139 [label="gini = 0.0\nsamples = 1\nvalue = [0, 1]"] ;
138 -> 139 ;
140 [label="gini = 0.0\nsamples = 2\nvalue = [2, 0]"] ;
138 -> 140 ;
141 [label="gini = 0.0\nsamples = 11\nvalue = [0, 11]"] ;
137 -> 141 ;
142 [label="BloodPressure <= 0.414\ngini = 0.375\nsamples = 4\nvalue = [3, 1]"] ;
136 -> 142 ;
143 [label="gini = 0.0\nsamples = 3\nvalue = [3, 0]"] ;
142 -> 143 ;
144 [label="gini = 0.0\nsamples = 1\nvalue = [0, 1]"] ;
142 -> 144 ;
145 [label="gini = 0.0\nsamples = 2\nvalue = [2, 0]"] ;
135 -> 145 ;
146 [label="Pregnancies <= 0.03\ngini = 0.31\nsamples = 250\nvalue = [202, 48]"] ;
0 -> 146 [labeldistance=2.5, labelangle=-45, headlabel="False"] ;
147 [label="Age <= 0.115\ngini = 0.193\nsamples = 148\nvalue = [132, 16]"] ;
146 -> 147 ;
148 [label="gini = 0.0\nsamples = 2\nvalue = [0, 2]"] ;
147 -> 148 ;
149 [label="Insulin <= 0.259\ngini = 0.173\nsamples = 146\nvalue = [132, 14]"] ;
147 -> 149 ;
150 [label="Insulin <= 0.205\ngini = 0.241\nsamples = 100\nvalue = [86, 14]"] ;
149 -> 150 ;
151 [label="Age <= 0.127\ngini = 0.228\nsamples = 99\nvalue = [86, 13]"] ;
150 -> 151 ;
152 [label="gini = 0.0\nsamples = 1\nvalue = [0, 1]"] ;
151 -> 152 ;
153 [label="DiabetesPedigreeFunction <= 0.002\ngini = 0.215\nsamples = 98\nvalue = [86, 12]"] ;
151 -> 153 ;
154 [label="Pregnancies <= 0.027\ngini = 0.056\nsamples = 35\nvalue = [34, 1]"] ;
153 -> 154 ;
155 [label="gini = 0.0\nsamples = 31\nvalue = [31, 0]"] ;
154 -> 155 ;
156 [label="Pregnancies <= 0.028\ngini = 0.375\nsamples = 4\nvalue = [3, 1]"] ;
154 -> 156 ;
157 [label="gini = 0.0\nsamples = 1\nvalue = [0, 1]"] ;
156 -> 157 ;
158 [label="gini = 0.0\nsamples = 3\nvalue = [3, 0]"] ;
156 -> 158 ;
159 [label="DiabetesPedigreeFunction <= 0.002\ngini = 0.288\nsamples = 63\nvalue = [52, 11]"] ;
153 -> 159 ;
160 [label="gini = 0.0\nsamples = 1\nvalue = [0, 1]"] ;
159 -> 160 ;
161 [label="Pregnancies <= 0.007\ngini = 0.271\nsamples = 62\nvalue = [52, 10]"] ;
159 -> 161 ;
162 [label="Pregnancies <= 0.007\ngini = 0.423\nsamples = 23\nvalue = [16, 7]"] ;
161 -> 162 ;
163 [label="Glucose <= 0.84\ngini = 0.363\nsamples = 21\nvalue = [16, 5]"] ;
162 -> 163 ;
164 [label="Glucose <= 0.802\ngini = 0.32\nsamples = 20\nvalue = [16, 4]"] ;
163 -> 164 ;
165 [label="Glucose <= 0.795\ngini = 0.426\nsamples = 13\nvalue = [9, 4]"] ;
164 -> 165 ;
166 [label="SkinThickness <= 0.187\ngini = 0.298\nsamples = 11\nvalue = [9, 2]"] ;
165 -> 166 ;
167 [label="gini = 0.0\nsamples = 7\nvalue = [7, 0]"] ;
166 -> 167 ;
168 [label="Glucose <= 0.787\ngini = 0.5\nsamples = 4\nvalue = [2, 2]"] ;
166 -> 168 ;
169 [label="gini = 0.0\nsamples = 2\nvalue = [0, 2]"] ;
168 -> 169 ;
170 [label="gini = 0.0\nsamples = 2\nvalue = [2, 0]"] ;
168 -> 170 ;
171 [label="gini = 0.0\nsamples = 2\nvalue = [0, 2]"] ;
165 -> 171 ;
172 [label="gini = 0.0\nsamples = 7\nvalue = [7, 0]"] ;
164 -> 172 ;
173 [label="gini = 0.0\nsamples = 1\nvalue = [0, 1]"] ;
163 -> 173 ;
174 [label="gini = 0.0\nsamples = 2\nvalue = [0, 2]"] ;
162 -> 174 ;
175 [label="SkinThickness <= 0.325\ngini = 0.142\nsamples = 39\nvalue = [36, 3]"] ;
161 -> 175 ;
176 [label="Age <= 0.268\ngini = 0.102\nsamples = 37\nvalue = [35, 2]"] ;
175 -> 176 ;
177 [label="gini = 0.0\nsamples = 26\nvalue = [26, 0]"] ;
176 -> 177 ;
178 [label="Glucose <= 0.786\ngini = 0.298\nsamples = 11\nvalue = [9, 2]"] ;
176 -> 178 ;
179 [label="gini = 0.0\nsamples = 9\nvalue = [9, 0]"] ;
178 -> 179 ;
180 [label="gini = 0.0\nsamples = 2\nvalue = [0, 2]"] ;
178 -> 180 ;
181 [label="Age <= 0.233\ngini = 0.5\nsamples = 2\nvalue = [1, 1]"] ;
175 -> 181 ;
182 [label="gini = 0.0\nsamples = 1\nvalue = [0, 1]"] ;
181 -> 182 ;
183 [label="gini = 0.0\nsamples = 1\nvalue = [1, 0]"] ;
181 -> 183 ;
184 [label="gini = 0.0\nsamples = 1\nvalue = [0, 1]"] ;
150 -> 184 ;
185 [label="gini = 0.0\nsamples = 46\nvalue = [46, 0]"] ;
149 -> 185 ;
186 [label="Glucose <= 0.763\ngini = 0.431\nsamples = 102\nvalue = [70, 32]"] ;
146 -> 186 ;
187 [label="BMI <= 0.323\ngini = 0.285\nsamples = 64\nvalue = [53, 11]"] ;
186 -> 187 ;
188 [label="SkinThickness <= 0.187\ngini = 0.231\nsamples = 60\nvalue = [52, 8]"] ;
187 -> 188 ;
189 [label="Age <= 0.261\ngini = 0.093\nsamples = 41\nvalue = [39, 2]"] ;
188 -> 189 ;
190 [label="Age <= 0.257\ngini = 0.278\nsamples = 12\nvalue = [10, 2]"] ;
189 -> 190 ;
191 [label="Pregnancies <= 0.072\ngini = 0.165\nsamples = 11\nvalue = [10, 1]"] ;
190 -> 191 ;
192 [label="gini = 0.0\nsamples = 10\nvalue = [10, 0]"] ;
191 -> 192 ;
193 [label="gini = 0.0\nsamples = 1\nvalue = [0, 1]"] ;
191 -> 193 ;
194 [label="gini = 0.0\nsamples = 1\nvalue = [0, 1]"] ;
190 -> 194 ;
195 [label="gini = 0.0\nsamples = 29\nvalue = [29, 0]"] ;
189 -> 195 ;
196 [label="SkinThickness <= 0.246\ngini = 0.432\nsamples = 19\nvalue = [13, 6]"] ;
188 -> 196 ;
197 [label="BloodPressure <= 0.627\ngini = 0.48\nsamples = 10\nvalue = [4, 6]"] ;
196 -> 197 ;
198 [label="BMI <= 0.225\ngini = 0.375\nsamples = 8\nvalue = [2, 6]"] ;
197 -> 198 ;
199 [label="gini = 0.0\nsamples = 1\nvalue = [1, 0]"] ;
198 -> 199 ;
200 [label="BMI <= 0.293\ngini = 0.245\nsamples = 7\nvalue = [1, 6]"] ;
198 -> 200 ;
201 [label="gini = 0.0\nsamples = 6\nvalue = [0, 6]"] ;
200 -> 201 ;
202 [label="gini = 0.0\nsamples = 1\nvalue = [1, 0]"] ;
200 -> 202 ;
203 [label="gini = 0.0\nsamples = 2\nvalue = [2, 0]"] ;
197 -> 203 ;
204 [label="gini = 0.0\nsamples = 9\nvalue = [9, 0]"] ;
196 -> 204 ;
205 [label="Insulin <= 0.167\ngini = 0.375\nsamples = 4\nvalue = [1, 3]"] ;
187 -> 205 ;
206 [label="gini = 0.0\nsamples = 3\nvalue = [0, 3]"] ;
205 -> 206 ;
207 [label="gini = 0.0\nsamples = 1\nvalue = [1, 0]"] ;
205 -> 207 ;
208 [label="Age <= 0.222\ngini = 0.494\nsamples = 38\nvalue = [17, 21]"] ;
186 -> 208 ;
209 [label="Pregnancies <= 0.048\ngini = 0.391\nsamples = 15\nvalue = [11, 4]"] ;
208 -> 209 ;
210 [label="Glucose <= 0.822\ngini = 0.165\nsamples = 11\nvalue = [10, 1]"] ;
209 -> 210 ;
211 [label="gini = 0.0\nsamples = 10\nvalue = [10, 0]"] ;
210 -> 211 ;
212 [label="gini = 0.0\nsamples = 1\nvalue = [0, 1]"] ;
210 -> 212 ;
213 [label="Pregnancies <= 0.065\ngini = 0.375\nsamples = 4\nvalue = [1, 3]"] ;
209 -> 213 ;
214 [label="gini = 0.0\nsamples = 3\nvalue = [0, 3]"] ;
213 -> 214 ;
215 [label="gini = 0.0\nsamples = 1\nvalue = [1, 0]"] ;
213 -> 215 ;
216 [label="BloodPressure <= 0.457\ngini = 0.386\nsamples = 23\nvalue = [6, 17]"] ;
208 -> 216 ;
217 [label="gini = 0.0\nsamples = 1\nvalue = [1, 0]"] ;
216 -> 217 ;
218 [label="BMI <= 0.301\ngini = 0.351\nsamples = 22\nvalue = [5, 17]"] ;
216 -> 218 ;
219 [label="BloodPressure <= 0.514\ngini = 0.308\nsamples = 21\nvalue = [4, 17]"] ;
218 -> 219 ;
220 [label="Insulin <= 0.069\ngini = 0.133\nsamples = 14\nvalue = [1, 13]"] ;
219 -> 220 ;
221 [label="gini = 0.0\nsamples = 12\nvalue = [0, 12]"] ;
220 -> 221 ;
222 [label="Insulin <= 0.145\ngini = 0.5\nsamples = 2\nvalue = [1, 1]"] ;
220 -> 222 ;
223 [label="gini = 0.0\nsamples = 1\nvalue = [1, 0]"] ;
222 -> 223 ;
224 [label="gini = 0.0\nsamples = 1\nvalue = [0, 1]"] ;
222 -> 224 ;
225 [label="BloodPressure <= 0.526\ngini = 0.49\nsamples = 7\nvalue = [3, 4]"] ;
219 -> 225 ;
226 [label="BMI <= 0.239\ngini = 0.375\nsamples = 4\nvalue = [3, 1]"] ;
225 -> 226 ;
227 [label="gini = 0.0\nsamples = 3\nvalue = [3, 0]"] ;
226 -> 227 ;
228 [label="gini = 0.0\nsamples = 1\nvalue = [0, 1]"] ;
226 -> 228 ;
229 [label="gini = 0.0\nsamples = 3\nvalue = [0, 3]"] ;
225 -> 229 ;
230 [label="gini = 0.0\nsamples = 1\nvalue = [1, 0]"] ;
218 -> 230 ;
}